digraph Tree {
node [shape=box, style="filled, rounded", color="black", fontname="helvetica"] ;
edge [fontname="helvetica"] ;
0 [label=<degree_spondylolisthesis &le; 16.845<br/>entropy = 1.492<br/>samples = 124<br/>value = [24, 40, 60]<br/>class = a>, fillcolor="#e1d0f9"] ;
1 [label=<pelvic_radius &le; 116.585<br/>entropy = 1.182<br/>samples = 66<br/>value = [24, 39, 3]<br/>class = l>, fillcolor="#b8f6d2"] ;
0 -> 1 [labeldistance=2.5, labelangle=45, headlabel="True"] ;
2 [label=<pelvic_incidence &le; 63.88<br/>entropy = 1.19<br/>samples = 19<br/>value = [13, 4, 2]<br/>class = c>, fillcolor="#efb388"] ;
1 -> 2 ;
3 [label=<entropy = 0.391<br/>samples = 13<br/>value = [12, 1, 0]<br/>class = c>, fillcolor="#e78c49"] ;
2 -> 3 ;
4 [label=<entropy = 1.459<br/>samples = 6<br/>value = [1, 3, 2]<br/>class = l>, fillcolor="#cef8e0"] ;
2 -> 4 ;
5 [label=<sacral_slope &le; 29.945<br/>entropy = 0.925<br/>samples = 47<br/>value = [11, 35, 1]<br/>class = l>, fillcolor="#7beeab"] ;
1 -> 5 ;
6 [label=<entropy = 0.971<br/>samples = 15<br/>value = [9, 6, 0]<br/>class = c>, fillcolor="#f6d5bd"] ;
5 -> 6 ;
7 [label=<entropy = 0.535<br/>samples = 32<br/>value = [2, 29, 1]<br/>class = l>, fillcolor="#4de88e"] ;
5 -> 7 ;
8 [label=<pelvic_incidence &le; 56.355<br/>entropy = 0.126<br/>samples = 58<br/>value = [0, 1, 57]<br/>class = a>, fillcolor="#833ce5"] ;
0 -> 8 [labeldistance=2.5, labelangle=-45, headlabel="False"] ;
9 [label=<pelvic_incidence &le; 55.59<br/>entropy = 0.503<br/>samples = 9<br/>value = [0, 1, 8]<br/>class = a>, fillcolor="#9152e8"] ;
8 -> 9 ;
10 [label=<entropy = 0.0<br/>samples = 8<br/>value = [0, 0, 8]<br/>class = a>, fillcolor="#8139e5"] ;
9 -> 10 ;
11 [label=<entropy = 0.0<br/>samples = 1<br/>value = [0, 1, 0]<br/>class = l>, fillcolor="#39e581"] ;
9 -> 11 ;
12 [label=<entropy = 0.0<br/>samples = 49<br/>value = [0, 0, 49]<br/>class = a>, fillcolor="#8139e5"] ;
8 -> 12 ;
}
