digraph Tree {
node [shape=box, style="filled, rounded", color="black", fontname="helvetica"] ;
edge [fontname="helvetica"] ;
0 [label=<degree_spondylolisthesis &le; 11.925<br/>gini = 0.627<br/>samples = 92<br/>value = [18, 30, 44]<br/>class = a>, fillcolor="#e3d2f9"] ;
1 [label=<pelvic_tilt &le; 10.725<br/>gini = 0.512<br/>samples = 47<br/>value = [17, 28, 2]<br/>class = l>, fillcolor="#b6f5d1"] ;
0 -> 1 [labeldistance=2.5, labelangle=45, headlabel="True"] ;
2 [label=<pelvic_radius &le; 116.02<br/>gini = 0.111<br/>samples = 17<br/>value = [1, 16, 0]<br/>class = l>, fillcolor="#45e789"] ;
1 -> 2 ;
3 [label=<gini = 0.0<br/>samples = 1<br/>value = [1, 0, 0]<br/>class = c>, fillcolor="#e58139"] ;
2 -> 3 ;
4 [label=<gini = 0.0<br/>samples = 16<br/>value = [0, 16, 0]<br/>class = l>, fillcolor="#39e581"] ;
2 -> 4 ;
5 [label=<sacral_slope &le; 40.1<br/>gini = 0.551<br/>samples = 30<br/>value = [16, 12, 2]<br/>class = c>, fillcolor="#f9e3d3"] ;
1 -> 5 ;
6 [label=<pelvic_radius &le; 125.525<br/>gini = 0.469<br/>samples = 24<br/>value = [16, 7, 1]<br/>class = c>, fillcolor="#f1bc96"] ;
5 -> 6 ;
7 [label=<gini = 0.24<br/>samples = 15<br/>value = [13, 1, 1]<br/>class = c>, fillcolor="#e99355"] ;
6 -> 7 ;
8 [label=<gini = 0.444<br/>samples = 9<br/>value = [3, 6, 0]<br/>class = l>, fillcolor="#9cf2c0"] ;
6 -> 8 ;
9 [label=<pelvic_tilt &le; 19.525<br/>gini = 0.278<br/>samples = 6<br/>value = [0, 5, 1]<br/>class = l>, fillcolor="#61ea9a"] ;
5 -> 9 ;
10 [label=<gini = 0.0<br/>samples = 5<br/>value = [0, 5, 0]<br/>class = l>, fillcolor="#39e581"] ;
9 -> 10 ;
11 [label=<gini = 0.0<br/>samples = 1<br/>value = [0, 0, 1]<br/>class = a>, fillcolor="#8139e5"] ;
9 -> 11 ;
12 [label=<degree_spondylolisthesis &le; 18.595<br/>gini = 0.126<br/>samples = 45<br/>value = [1, 2, 42]<br/>class = a>, fillcolor="#8a47e7"] ;
0 -> 12 [labeldistance=2.5, labelangle=-45, headlabel="False"] ;
13 [label=<sacral_slope &le; 51.51<br/>gini = 0.5<br/>samples = 2<br/>value = [1, 0, 1]<br/>class = c>, fillcolor="#ffffff"] ;
12 -> 13 ;
14 [label=<gini = 0.0<br/>samples = 1<br/>value = [1, 0, 0]<br/>class = c>, fillcolor="#e58139"] ;
13 -> 14 ;
15 [label=<gini = 0.0<br/>samples = 1<br/>value = [0, 0, 1]<br/>class = a>, fillcolor="#8139e5"] ;
13 -> 15 ;
16 [label=<degree_spondylolisthesis &le; 31.475<br/>gini = 0.089<br/>samples = 43<br/>value = [0, 2, 41]<br/>class = a>, fillcolor="#8743e6"] ;
12 -> 16 ;
17 [label=<degree_spondylolisthesis &le; 30.89<br/>gini = 0.278<br/>samples = 12<br/>value = [0, 2, 10]<br/>class = a>, fillcolor="#9a61ea"] ;
16 -> 17 ;
18 [label=<gini = 0.165<br/>samples = 11<br/>value = [0, 1, 10]<br/>class = a>, fillcolor="#8e4de8"] ;
17 -> 18 ;
19 [label=<gini = 0.0<br/>samples = 1<br/>value = [0, 1, 0]<br/>class = l>, fillcolor="#39e581"] ;
17 -> 19 ;
20 [label=<gini = 0.0<br/>samples = 31<br/>value = [0, 0, 31]<br/>class = a>, fillcolor="#8139e5"] ;
16 -> 20 ;
}
