digraph Tree {
node [shape=box, style="filled, rounded", color="black", fontname="helvetica"] ;
edge [fontname="helvetica"] ;
0 [label=<degree_spondylolisthesis &le; 16.08<br/>entropy = 1.492<br/>samples = 186<br/>value = [36, 60, 90]<br/>class = a>, fillcolor="#e1d0f9"] ;
1 [label=<pelvic_radius &le; 117.435<br/>entropy = 1.125<br/>samples = 98<br/>value = [36, 59, 3]<br/>class = l>, fillcolor="#b6f5d0"] ;
0 -> 1 [labeldistance=2.5, labelangle=45, headlabel="True"] ;
2 [label=<sacral_slope &le; 43.715<br/>entropy = 1.181<br/>samples = 37<br/>value = [23, 12, 2]<br/>class = c>, fillcolor="#f4c8a8"] ;
1 -> 2 ;
3 [label=<entropy = 0.922<br/>samples = 30<br/>value = [23, 6, 1]<br/>class = c>, fillcolor="#eda673"] ;
2 -> 3 ;
4 [label=<entropy = 0.592<br/>samples = 7<br/>value = [0, 6, 1]<br/>class = l>, fillcolor="#5ae996"] ;
2 -> 4 ;
5 [label=<sacral_slope &le; 28.135<br/>entropy = 0.862<br/>samples = 61<br/>value = [13, 47, 1]<br/>class = l>, fillcolor="#73eda6"] ;
1 -> 5 ;
6 [label=<entropy = 0.94<br/>samples = 14<br/>value = [9, 5, 0]<br/>class = c>, fillcolor="#f3c7a7"] ;
5 -> 6 ;
7 [label=<entropy = 0.566<br/>samples = 47<br/>value = [4, 42, 1]<br/>class = l>, fillcolor="#50e890"] ;
5 -> 7 ;
8 [label=<pelvic_incidence &le; 56.32<br/>entropy = 0.09<br/>samples = 88<br/>value = [0, 1, 87]<br/>class = a>, fillcolor="#823be5"] ;
0 -> 8 [labeldistance=2.5, labelangle=-45, headlabel="False"] ;
9 [label=<pelvic_incidence &le; 55.59<br/>entropy = 0.469<br/>samples = 10<br/>value = [0, 1, 9]<br/>class = a>, fillcolor="#8f4fe8"] ;
8 -> 9 ;
10 [label=<entropy = 0.0<br/>samples = 9<br/>value = [0, 0, 9]<br/>class = a>, fillcolor="#8139e5"] ;
9 -> 10 ;
11 [label=<entropy = 0.0<br/>samples = 1<br/>value = [0, 1, 0]<br/>class = l>, fillcolor="#39e581"] ;
9 -> 11 ;
12 [label=<entropy = 0.0<br/>samples = 78<br/>value = [0, 0, 78]<br/>class = a>, fillcolor="#8139e5"] ;
8 -> 12 ;
}
