digraph Tree {
node [shape=box, style="filled, rounded", color="black", fontname="helvetica"] ;
edge [fontname="helvetica"] ;
0 [label=<degree_spondylolisthesis &le; 18.595<br/>entropy = 1.497<br/>samples = 92<br/>value = [18, 30, 44]<br/>class = a>, fillcolor="#e3d2f9"] ;
1 [label=<pelvic_tilt &le; 10.725<br/>entropy = 1.239<br/>samples = 49<br/>value = [18, 28, 3]<br/>class = l>, fillcolor="#bff7d6"] ;
0 -> 1 [labeldistance=2.5, labelangle=45, headlabel="True"] ;
2 [label=<pelvic_radius &le; 116.02<br/>entropy = 0.323<br/>samples = 17<br/>value = [1, 16, 0]<br/>class = l>, fillcolor="#45e789"] ;
1 -> 2 ;
3 [label=<entropy = 0.0<br/>samples = 1<br/>value = [1, 0, 0]<br/>class = c>, fillcolor="#e58139"] ;
2 -> 3 ;
4 [label=<entropy = 0.0<br/>samples = 16<br/>value = [0, 16, 0]<br/>class = l>, fillcolor="#39e581"] ;
2 -> 4 ;
5 [label=<sacral_slope &le; 40.1<br/>entropy = 1.336<br/>samples = 32<br/>value = [17, 12, 3]<br/>class = c>, fillcolor="#f8e0ce"] ;
1 -> 5 ;
6 [label=<pelvic_radius &le; 125.525<br/>entropy = 1.078<br/>samples = 25<br/>value = [17, 7, 1]<br/>class = c>, fillcolor="#f1b991"] ;
5 -> 6 ;
7 [label=<entropy = 0.669<br/>samples = 16<br/>value = [14, 1, 1]<br/>class = c>, fillcolor="#e89253"] ;
6 -> 7 ;
8 [label=<entropy = 0.918<br/>samples = 9<br/>value = [3, 6, 0]<br/>class = l>, fillcolor="#9cf2c0"] ;
6 -> 8 ;
9 [label=<pelvic_incidence &le; 71.975<br/>entropy = 0.863<br/>samples = 7<br/>value = [0, 5, 2]<br/>class = l>, fillcolor="#88efb3"] ;
5 -> 9 ;
10 [label=<entropy = 0.0<br/>samples = 5<br/>value = [0, 5, 0]<br/>class = l>, fillcolor="#39e581"] ;
9 -> 10 ;
11 [label=<entropy = 0.0<br/>samples = 2<br/>value = [0, 0, 2]<br/>class = a>, fillcolor="#8139e5"] ;
9 -> 11 ;
12 [label=<degree_spondylolisthesis &le; 31.475<br/>entropy = 0.271<br/>samples = 43<br/>value = [0, 2, 41]<br/>class = a>, fillcolor="#8743e6"] ;
0 -> 12 [labeldistance=2.5, labelangle=-45, headlabel="False"] ;
13 [label=<degree_spondylolisthesis &le; 30.89<br/>entropy = 0.65<br/>samples = 12<br/>value = [0, 2, 10]<br/>class = a>, fillcolor="#9a61ea"] ;
12 -> 13 ;
14 [label=<pelvic_radius &le; 121.745<br/>entropy = 0.439<br/>samples = 11<br/>value = [0, 1, 10]<br/>class = a>, fillcolor="#8e4de8"] ;
13 -> 14 ;
15 [label=<entropy = 0.0<br/>samples = 9<br/>value = [0, 0, 9]<br/>class = a>, fillcolor="#8139e5"] ;
14 -> 15 ;
16 [label=<entropy = 1.0<br/>samples = 2<br/>value = [0, 1, 1]<br/>class = l>, fillcolor="#ffffff"] ;
14 -> 16 ;
17 [label=<entropy = 0.0<br/>samples = 1<br/>value = [0, 1, 0]<br/>class = l>, fillcolor="#39e581"] ;
13 -> 17 ;
18 [label=<entropy = 0.0<br/>samples = 31<br/>value = [0, 0, 31]<br/>class = a>, fillcolor="#8139e5"] ;
12 -> 18 ;
}
