digraph Tree {
node [shape=box, style="filled, rounded", color="black", fontname="helvetica"] ;
edge [fontname="helvetica"] ;
0 [label=<degree_spondylolisthesis &le; 16.08<br/>entropy = 1.492<br/>samples = 279<br/>value = [54, 90, 135]<br/>class = a>, fillcolor="#e1d0f9"] ;
1 [label=<sacral_slope &le; 46.645<br/>entropy = 1.142<br/>samples = 146<br/>value = [54, 87, 5]<br/>class = l>, fillcolor="#b8f6d2"] ;
0 -> 1 [labeldistance=2.5, labelangle=45, headlabel="True"] ;
2 [label=<pelvic_radius &le; 117.435<br/>entropy = 1.046<br/>samples = 126<br/>value = [54, 71, 1]<br/>class = l>, fillcolor="#d0f9e1"] ;
1 -> 2 ;
3 [label=<lumbar_lordosis_angle &le; 31.4<br/>entropy = 0.945<br/>samples = 42<br/>value = [31, 10, 1]<br/>class = c>, fillcolor="#eeac7d"] ;
2 -> 3 ;
4 [label=<entropy = 0.0<br/>samples = 11<br/>value = [11, 0, 0]<br/>class = c>, fillcolor="#e58139"] ;
3 -> 4 ;
5 [label=<pelvic_tilt &le; 25.61<br/>entropy = 1.094<br/>samples = 31<br/>value = [20, 10, 1]<br/>class = c>, fillcolor="#f3c3a1"] ;
3 -> 5 ;
6 [label=<pelvic_radius &le; 112.875<br/>entropy = 0.863<br/>samples = 28<br/>value = [20, 8, 0]<br/>class = c>, fillcolor="#efb388"] ;
5 -> 6 ;
7 [label=<entropy = 0.0<br/>samples = 11<br/>value = [11, 0, 0]<br/>class = c>, fillcolor="#e58139"] ;
6 -> 7 ;
8 [label=<entropy = 0.998<br/>samples = 17<br/>value = [9, 8, 0]<br/>class = c>, fillcolor="#fcf1e9"] ;
6 -> 8 ;
9 [label=<pelvic_incidence &le; 64.66<br/>entropy = 0.918<br/>samples = 3<br/>value = [0, 2, 1]<br/>class = l>, fillcolor="#9cf2c0"] ;
5 -> 9 ;
10 [label=<entropy = 0.0<br/>samples = 2<br/>value = [0, 2, 0]<br/>class = l>, fillcolor="#39e581"] ;
9 -> 10 ;
11 [label=<entropy = 0.0<br/>samples = 1<br/>value = [0, 0, 1]<br/>class = a>, fillcolor="#8139e5"] ;
9 -> 11 ;
12 [label=<sacral_slope &le; 28.135<br/>entropy = 0.847<br/>samples = 84<br/>value = [23, 61, 0]<br/>class = l>, fillcolor="#84efb1"] ;
2 -> 12 ;
13 [label=<pelvic_tilt &le; 17.2<br/>entropy = 0.918<br/>samples = 21<br/>value = [14, 7, 0]<br/>class = c>, fillcolor="#f2c09c"] ;
12 -> 13 ;
14 [label=<pelvic_tilt &le; 15.065<br/>entropy = 0.996<br/>samples = 13<br/>value = [6, 7, 0]<br/>class = l>, fillcolor="#e3fbed"] ;
13 -> 14 ;
15 [label=<entropy = 0.918<br/>samples = 9<br/>value = [6, 3, 0]<br/>class = c>, fillcolor="#f2c09c"] ;
14 -> 15 ;
16 [label=<entropy = 0.0<br/>samples = 4<br/>value = [0, 4, 0]<br/>class = l>, fillcolor="#39e581"] ;
14 -> 16 ;
17 [label=<entropy = 0.0<br/>samples = 8<br/>value = [8, 0, 0]<br/>class = c>, fillcolor="#e58139"] ;
13 -> 17 ;
18 [label=<pelvic_tilt &le; 12.425<br/>entropy = 0.592<br/>samples = 63<br/>value = [9, 54, 0]<br/>class = l>, fillcolor="#5ae996"] ;
12 -> 18 ;
19 [label=<entropy = 0.0<br/>samples = 31<br/>value = [0, 31, 0]<br/>class = l>, fillcolor="#39e581"] ;
18 -> 19 ;
20 [label=<degree_spondylolisthesis &le; 5.2<br/>entropy = 0.857<br/>samples = 32<br/>value = [9, 23, 0]<br/>class = l>, fillcolor="#86efb2"] ;
18 -> 20 ;
21 [label=<entropy = 0.575<br/>samples = 22<br/>value = [3, 19, 0]<br/>class = l>, fillcolor="#58e995"] ;
20 -> 21 ;
22 [label=<entropy = 0.971<br/>samples = 10<br/>value = [6, 4, 0]<br/>class = c>, fillcolor="#f6d5bd"] ;
20 -> 22 ;
23 [label=<degree_spondylolisthesis &le; 8.365<br/>entropy = 0.722<br/>samples = 20<br/>value = [0, 16, 4]<br/>class = l>, fillcolor="#6aeca0"] ;
1 -> 23 ;
24 [label=<pelvic_tilt &le; 18.925<br/>entropy = 0.323<br/>samples = 17<br/>value = [0, 16, 1]<br/>class = l>, fillcolor="#45e789"] ;
23 -> 24 ;
25 [label=<entropy = 0.0<br/>samples = 13<br/>value = [0, 13, 0]<br/>class = l>, fillcolor="#39e581"] ;
24 -> 25 ;
26 [label=<pelvic_incidence &le; 72.52<br/>entropy = 0.811<br/>samples = 4<br/>value = [0, 3, 1]<br/>class = l>, fillcolor="#7beeab"] ;
24 -> 26 ;
27 [label=<entropy = 0.0<br/>samples = 1<br/>value = [0, 0, 1]<br/>class = a>, fillcolor="#8139e5"] ;
26 -> 27 ;
28 [label=<entropy = 0.0<br/>samples = 3<br/>value = [0, 3, 0]<br/>class = l>, fillcolor="#39e581"] ;
26 -> 28 ;
29 [label=<entropy = 0.0<br/>samples = 3<br/>value = [0, 0, 3]<br/>class = a>, fillcolor="#8139e5"] ;
23 -> 29 ;
30 [label=<degree_spondylolisthesis &le; 31.25<br/>entropy = 0.156<br/>samples = 133<br/>value = [0, 3, 130]<br/>class = a>, fillcolor="#843ee6"] ;
0 -> 30 [labeldistance=2.5, labelangle=-45, headlabel="False"] ;
31 [label=<pelvic_radius &le; 115.87<br/>entropy = 0.439<br/>samples = 33<br/>value = [0, 3, 30]<br/>class = a>, fillcolor="#8e4de8"] ;
30 -> 31 ;
32 [label=<entropy = 0.0<br/>samples = 19<br/>value = [0, 0, 19]<br/>class = a>, fillcolor="#8139e5"] ;
31 -> 32 ;
33 [label=<pelvic_tilt &le; 14.905<br/>entropy = 0.75<br/>samples = 14<br/>value = [0, 3, 11]<br/>class = a>, fillcolor="#a36fec"] ;
31 -> 33 ;
34 [label=<lumbar_lordosis_angle &le; 53.75<br/>entropy = 0.985<br/>samples = 7<br/>value = [0, 3, 4]<br/>class = a>, fillcolor="#e0cef8"] ;
33 -> 34 ;
35 [label=<entropy = 0.0<br/>samples = 3<br/>value = [0, 0, 3]<br/>class = a>, fillcolor="#8139e5"] ;
34 -> 35 ;
36 [label=<degree_spondylolisthesis &le; 18.88<br/>entropy = 0.811<br/>samples = 4<br/>value = [0, 3, 1]<br/>class = l>, fillcolor="#7beeab"] ;
34 -> 36 ;
37 [label=<entropy = 0.0<br/>samples = 1<br/>value = [0, 0, 1]<br/>class = a>, fillcolor="#8139e5"] ;
36 -> 37 ;
38 [label=<entropy = 0.0<br/>samples = 3<br/>value = [0, 3, 0]<br/>class = l>, fillcolor="#39e581"] ;
36 -> 38 ;
39 [label=<entropy = 0.0<br/>samples = 7<br/>value = [0, 0, 7]<br/>class = a>, fillcolor="#8139e5"] ;
33 -> 39 ;
40 [label=<entropy = 0.0<br/>samples = 100<br/>value = [0, 0, 100]<br/>class = a>, fillcolor="#8139e5"] ;
30 -> 40 ;
}
