digraph Tree {
node [shape=box, style="filled, rounded", color="black", fontname="helvetica"] ;
edge [fontname="helvetica"] ;
0 [label=<degree_spondylolisthesis &le; 16.08<br/>entropy = 1.492<br/>samples = 248<br/>value = [48, 80, 120]<br/>class = a>, fillcolor="#e1d0f9"] ;
1 [label=<sacral_slope &le; 45.125<br/>entropy = 1.156<br/>samples = 131<br/>value = [48, 78, 5]<br/>class = l>, fillcolor="#b7f6d1"] ;
0 -> 1 [labeldistance=2.5, labelangle=45, headlabel="True"] ;
2 [label=<pelvic_radius &le; 117.435<br/>entropy = 1.05<br/>samples = 113<br/>value = [48, 64, 1]<br/>class = l>, fillcolor="#cef9e0"] ;
1 -> 2 ;
3 [label=<lumbar_lordosis_angle &le; 31.4<br/>entropy = 0.982<br/>samples = 39<br/>value = [28, 10, 1]<br/>class = c>, fillcolor="#efb184"] ;
2 -> 3 ;
4 [label=<entropy = 0.0<br/>samples = 10<br/>value = [10, 0, 0]<br/>class = c>, fillcolor="#e58139"] ;
3 -> 4 ;
5 [label=<entropy = 1.124<br/>samples = 29<br/>value = [18, 10, 1]<br/>class = c>, fillcolor="#f4caac"] ;
3 -> 5 ;
6 [label=<sacral_slope &le; 28.135<br/>entropy = 0.842<br/>samples = 74<br/>value = [20, 54, 0]<br/>class = l>, fillcolor="#82efb0"] ;
2 -> 6 ;
7 [label=<entropy = 0.949<br/>samples = 19<br/>value = [12, 7, 0]<br/>class = c>, fillcolor="#f4caac"] ;
6 -> 7 ;
8 [label=<entropy = 0.598<br/>samples = 55<br/>value = [8, 47, 0]<br/>class = l>, fillcolor="#5be996"] ;
6 -> 8 ;
9 [label=<degree_spondylolisthesis &le; 8.365<br/>entropy = 0.764<br/>samples = 18<br/>value = [0, 14, 4]<br/>class = l>, fillcolor="#72eca5"] ;
1 -> 9 ;
10 [label=<pelvic_tilt &le; 17.94<br/>entropy = 0.353<br/>samples = 15<br/>value = [0, 14, 1]<br/>class = l>, fillcolor="#47e78a"] ;
9 -> 10 ;
11 [label=<entropy = 0.0<br/>samples = 11<br/>value = [0, 11, 0]<br/>class = l>, fillcolor="#39e581"] ;
10 -> 11 ;
12 [label=<entropy = 0.811<br/>samples = 4<br/>value = [0, 3, 1]<br/>class = l>, fillcolor="#7beeab"] ;
10 -> 12 ;
13 [label=<entropy = 0.0<br/>samples = 3<br/>value = [0, 0, 3]<br/>class = a>, fillcolor="#8139e5"] ;
9 -> 13 ;
14 [label=<degree_spondylolisthesis &le; 31.25<br/>entropy = 0.125<br/>samples = 117<br/>value = [0, 2, 115]<br/>class = a>, fillcolor="#833ce5"] ;
0 -> 14 [labeldistance=2.5, labelangle=-45, headlabel="False"] ;
15 [label=<degree_spondylolisthesis &le; 30.89<br/>entropy = 0.371<br/>samples = 28<br/>value = [0, 2, 26]<br/>class = a>, fillcolor="#8b48e7"] ;
14 -> 15 ;
16 [label=<pelvic_radius &le; 121.745<br/>entropy = 0.229<br/>samples = 27<br/>value = [0, 1, 26]<br/>class = a>, fillcolor="#8641e6"] ;
15 -> 16 ;
17 [label=<entropy = 0.0<br/>samples = 22<br/>value = [0, 0, 22]<br/>class = a>, fillcolor="#8139e5"] ;
16 -> 17 ;
18 [label=<entropy = 0.722<br/>samples = 5<br/>value = [0, 1, 4]<br/>class = a>, fillcolor="#a06aec"] ;
16 -> 18 ;
19 [label=<entropy = 0.0<br/>samples = 1<br/>value = [0, 1, 0]<br/>class = l>, fillcolor="#39e581"] ;
15 -> 19 ;
20 [label=<entropy = 0.0<br/>samples = 89<br/>value = [0, 0, 89]<br/>class = a>, fillcolor="#8139e5"] ;
14 -> 20 ;
}
