digraph Tree {
node [shape=box, style="filled, rounded", color="black", fontname="helvetica"] ;
edge [fontname="helvetica"] ;
0 [label=<degree_spondylolisthesis &le; 16.08<br/>gini = 0.624<br/>samples = 186<br/>value = [36, 60, 90]<br/>class = a>, fillcolor="#e1d0f9"] ;
1 [label=<pelvic_radius &le; 117.435<br/>gini = 0.502<br/>samples = 98<br/>value = [36, 59, 3]<br/>class = l>, fillcolor="#b6f5d0"] ;
0 -> 1 [labeldistance=2.5, labelangle=45, headlabel="True"] ;
2 [label=<sacral_slope &le; 43.715<br/>gini = 0.505<br/>samples = 37<br/>value = [23, 12, 2]<br/>class = c>, fillcolor="#f4c8a8"] ;
1 -> 2 ;
3 [label=<sacral_slope &le; 36.145<br/>gini = 0.371<br/>samples = 30<br/>value = [23, 6, 1]<br/>class = c>, fillcolor="#eda673"] ;
2 -> 3 ;
4 [label=<gini = 0.18<br/>samples = 20<br/>value = [18, 2, 0]<br/>class = c>, fillcolor="#e88f4f"] ;
3 -> 4 ;
5 [label=<gini = 0.58<br/>samples = 10<br/>value = [5, 4, 1]<br/>class = c>, fillcolor="#fbeade"] ;
3 -> 5 ;
6 [label=<pelvic_radius &le; 113.64<br/>gini = 0.245<br/>samples = 7<br/>value = [0, 6, 1]<br/>class = l>, fillcolor="#5ae996"] ;
2 -> 6 ;
7 [label=<gini = 0.0<br/>samples = 4<br/>value = [0, 4, 0]<br/>class = l>, fillcolor="#39e581"] ;
6 -> 7 ;
8 [label=<gini = 0.444<br/>samples = 3<br/>value = [0, 2, 1]<br/>class = l>, fillcolor="#9cf2c0"] ;
6 -> 8 ;
9 [label=<sacral_slope &le; 28.135<br/>gini = 0.361<br/>samples = 61<br/>value = [13, 47, 1]<br/>class = l>, fillcolor="#73eda6"] ;
1 -> 9 ;
10 [label=<degree_spondylolisthesis &le; 6.89<br/>gini = 0.459<br/>samples = 14<br/>value = [9, 5, 0]<br/>class = c>, fillcolor="#f3c7a7"] ;
9 -> 10 ;
11 [label=<gini = 0.375<br/>samples = 12<br/>value = [9, 3, 0]<br/>class = c>, fillcolor="#eeab7b"] ;
10 -> 11 ;
12 [label=<gini = 0.0<br/>samples = 2<br/>value = [0, 2, 0]<br/>class = l>, fillcolor="#39e581"] ;
10 -> 12 ;
13 [label=<pelvic_incidence &le; 71.72<br/>gini = 0.194<br/>samples = 47<br/>value = [4, 42, 1]<br/>class = l>, fillcolor="#50e890"] ;
9 -> 13 ;
14 [label=<gini = 0.159<br/>samples = 46<br/>value = [4, 42, 0]<br/>class = l>, fillcolor="#4ce78d"] ;
13 -> 14 ;
15 [label=<gini = 0.0<br/>samples = 1<br/>value = [0, 0, 1]<br/>class = a>, fillcolor="#8139e5"] ;
13 -> 15 ;
16 [label=<pelvic_incidence &le; 56.32<br/>gini = 0.022<br/>samples = 88<br/>value = [0, 1, 87]<br/>class = a>, fillcolor="#823be5"] ;
0 -> 16 [labeldistance=2.5, labelangle=-45, headlabel="False"] ;
17 [label=<pelvic_incidence &le; 55.59<br/>gini = 0.18<br/>samples = 10<br/>value = [0, 1, 9]<br/>class = a>, fillcolor="#8f4fe8"] ;
16 -> 17 ;
18 [label=<gini = 0.0<br/>samples = 9<br/>value = [0, 0, 9]<br/>class = a>, fillcolor="#8139e5"] ;
17 -> 18 ;
19 [label=<gini = 0.0<br/>samples = 1<br/>value = [0, 1, 0]<br/>class = l>, fillcolor="#39e581"] ;
17 -> 19 ;
20 [label=<gini = 0.0<br/>samples = 78<br/>value = [0, 0, 78]<br/>class = a>, fillcolor="#8139e5"] ;
16 -> 20 ;
}
